<?xml version="1.0"?>
<opencv_storage>
<cascade>
  <stageType>BOOST</stageType>
  <featureType>HAAR</featureType>
  <height>24</height>
  <width>24</width>
  <stageParams>
    <boostType>GAB</boostType>
    <minHitRate>9.9500000476837158e-01</minHitRate>
    <maxFalseAlarm>5.0000000000000000e-01</maxFalseAlarm>
    <weightTrimRate>9.4999998807907104e-01</weightTrimRate>
    <maxDepth>1</maxDepth>
    <maxWeakCount>100</maxWeakCount></stageParams>
  <featureParams>
    <maxCatCount>0</maxCatCount>
    <featSize>1</featSize>
    <mode>BASIC</mode></featureParams>
  <stageNum>20</stageNum>
  <stages>
    <!-- stage 0 -->
    <_>
      <maxWeakCount>8</maxWeakCount>
      <stageThreshold>-1.6416522264480591e+00</stageThreshold>
      <weakClassifiers>
        <_>
          <internalNodes>
            0 -1 287 1.7007742077112198e-02</internalNodes>
          <leafValues>
            -8.3716475963592529e-01 1.8811881542205811e-01</leafValues></_>
        <_>
          <internalNodes>
            0 -1 163 -2.8461953625082970e-03</internalNodes>
          <leafValues>
            4.7307434678077698e-01 -5.4528212547302246e-01</leafValues></_>
        <_>
          <internalNodes>
            0 -1 51 -2.1620845422148705e-02</internalNodes>
          <leafValues>
            6.2885111570358276e-01 -2.8800022602081299e-01</leafValues></_>
        <_>
          <internalNodes>
            0 -1 301 2.8843651525676250e-03</internalNodes>
          <leafValues>
            -2.1301414072513580e-01 6.5099453926086426e-01</leafValues></_>
        <_>
          <internalNodes>
            0 -1 294 1.1435464955866337e-02</internalNodes>
          <leafValues>
            -1.9025155901908875e-01 6.0981321334838867e-01</leafValues></_>
        <_>
          <internalNodes>
            0 -1 35 -4.7645375161664560e-05</internalNodes>
          <leafValues>
            -5.3840464353561401e-01 2.9944381117820740e-01</leafValues></_>
        <_>
          <internalNodes>
            0 -1 243 7.1922279894351959e-03</internalNodes>
          <leafValues>
            -2.1478538215160370e-01 6.7903327941894531e-01</leafValues></_>
        <_>
          <internalNodes>
            0 -1 91 -3.3654981962172315e-05</internalNodes>
          <leafValues>
            -4.5266267657279968e-01 3.6097344756126404e-01</leafValues></_></weakClassifiers></_>
    <!-- stage 1 -->
    <_>
      <maxWeakCount>10</maxWeakCount>
      <stageThreshold>-1.8106274604797363e+00</stageThreshold>
      <weakClassifiers>
        <_>
          <internalNodes>
            0 -1 284 3.5048663616180420e-02</internalNodes>
          <leafValues>
            -8.1549817323684692e-01 4.7540983557701111e-01</leafValues></_>
        <_>
          <internalNodes>
            0 -1 53 -2.0501350983977318e-02</internalNodes>
          <leafValues>
            5.5799680948257446e-01 -5.0355386734008789e-01</leafValues></_>
        <_>
          <internalNodes>
            0 -1 117 1.4857400208711624e-02</internalNodes>
          <leafValues>
            -2.6882857084274292e-01 7.2235149145126343e-01</leafValues></_>
        <_>
          <internalNodes>
            0 -1 265 -2.3936685174703598e-02</internalNodes>
          <leafValues>
            8.0792844295501709e-01 -1.7839682102203369e-01</leafValues></_>
        <_>
          <internalNodes>
            0 -1 257 2.1414712071418762e-02</internalNodes>
          <leafValues>
            -2.0529583096504211e-01 6.3724428415298462e-01</leafValues></_>
        <_>
          <internalNodes>
            0 -1 340 -2.6972318300977349e-04</internalNodes>
          <leafValues>
            -7.3670393228530884e-01 2.1945104002952576e-01</leafValues></_>
        <_>
          <internalNodes>
            0 -1 341 1.3534747995436192e-03</internalNodes>
          <leafValues>
            2.0999370515346527e-01 -7.5713503360748291e-01</leafValues></_>
        <_>
          <internalNodes>
            0 -1 259 -2.1013483405113220e-02</internalNodes>
          <leafValues>
            6.4618545770645142e-01 -2.5376039743423462e-01</leafValues></_>
        <_>
          <internalNodes>
            0 -1 282 -1.2981716543436050e-02</internalNodes>
          <leafValues>
            6.2132418155670166e-01 -2.0480999350547791e-01</leafValues></_>
        <_>
          <internalNodes>
            0 -1 343 -4.7098236973397434e-04</internalNodes>
          <leafValues>
            -6.5246868133544922e-01 2.3174743354320526e-01</leafValues></_></weakClassifiers></_>
    <!-- stage 2 -->
    <_>
      <maxWeakCount>13</maxWeakCount>
      <stageThreshold>-2.1568465232849121e+00</stageThreshold>
      <weakClassifiers>
        <_>
          <internalNodes>
            0 -1 231 -3.5937927663326263e-02</internalNodes>
          <leafValues>
            3.5714286565780640e-01 -8.0348944664001465e-01</leafValues></_>
        <_>
          <internalNodes>
            0 -1 161 -1.9034709781408310e-02</internalNodes>
          <leafValues>
            2.8044518828392029e-01 -5.6462734937667847e-01</leafValues></_>
        <_>
          <internalNodes>
            0 -1 75 -3.0120009556412697e-02</internalNodes>
          <leafValues>
            6.3380420207977295e-01 -2.5362133979797363e-01</leafValues></_>
        <_>
          <internalNodes>
            0 -1 226 1.4442628249526024e-02</internalNodes>
          <leafValues>
            -1.4762952923774719e-01 8.0045658349990845e-01</leafValues></_>
        <_>
          <internalNodes>
            0 -1 303 2.9038205742835999e-02</internalNodes>
          <leafValues>
            -1.7807836830615997e-01 6.2554657459259033e-01</leafValues></_>
        <_>
          <internalNodes>
            0 -1 64 -2.4302717065438628e-04</internalNodes>
          <leafValues>
            -5.7234221696853638e-01 2.4675618112087250e-01</leafValues></_>
        <_>
          <internalNodes>
            0 -1 261 -6.2716854736208916e-03</internalNodes>
          <leafValues>
            5.6707113981246948e-01 -1.9346784055233002e-01</leafValues></_>
        <_>
          <internalNodes>
            0 -1 342 1.9969269633293152e-02</internalNodes>
          <leafValues>
            1.3115039467811584e-01 -9.6073180437088013e-01</leafValues></_>
        <_>
          <internalNodes>
            0 -1 164 -1.5851954231038690e-05</internalNodes>
          <leafValues>
            -4.5781227946281433e-01 2.4451135098934174e-01</leafValues></_>
        <_>
          <internalNodes>
            0 -1 273 6.8950955756008625e-03</internalNodes>
          <leafValues>
            -1.9769658148288727e-01 6.7235207557678223e-01</leafValues></_>
        <_>
          <internalNodes>
            0 -1 81 1.1825540568679571e-03</internalNodes>
          <leafValues>
            2.1268725395202637e-01 -6.9235068559646606e-01</leafValues></_>
        <_>
          <internalNodes>
            0 -1 256 2.2243276238441467e-02</internalNodes>
          <leafValues>
            -1.9261154532432556e-01 6.7031943798065186e-01</leafValues></_>
        <_>
          <internalNodes>
            0 -1 87 -8.9246976131107658e-05</internalNodes>
          <leafValues>
            -5.3234410285949707e-01 2.4159400165081024e-01</leafValues></_></weakClassifiers></_>
    <!-- stage 3 -->
    <_>
      <maxWeakCount>13</maxWeakCount>
      <stageThreshold>-2.1560440063476563e+00</stageThreshold>
      <weakClassifiers>
        <_>
          <internalNodes>
            0 -1 272 1.8861658871173859e-02</internalNodes>
          <leafValues>
            -8.1647938489913940e-01 2.2077922523021698e-01</leafValues></_>
        <_>
          <internalNodes>
            0 -1 219 -2.8287153691053391e-02</internalNodes>
          <leafValues>
            4.1299459338188171e-01 -5.2322816848754883e-01</leafValues></_>
        <_>
          <internalNodes>
            0 -1 221 -8.2818744704127312e-03</internalNodes>
          <leafValues>
            6.3452798128128052e-01 -2.5215673446655273e-01</leafValues></_>
        <_>
          <internalNodes>
            0 -1 83 2.3985140025615692e-02</internalNodes>
          <leafValues>
            -2.0263242721557617e-01 7.4445432424545288e-01</leafValues></_>
        <_>
          <internalNodes>
            0 -1 237 1.5792218036949635e-03</internalNodes>
          <leafValues>
            1.7998003959655762e-01 -7.2930490970611572e-01</leafValues></_>
        <_>
          <internalNodes>
            0 -1 79 -2.0309440791606903e-02</internalNodes>
          <leafValues>
            6.6331106424331665e-01 -1.7094436287879944e-01</leafValues></_>
        <_>
          <internalNodes>
            0 -1 90 -1.3487980140780564e-05</internalNodes>
          <leafValues>
            -4.0361386537551880e-01 2.6085767149925232e-01</leafValues></_>
        <_>
          <internalNodes>
            0 -1 76 -9.3040522187948227e-03</internalNodes>
          <leafValues>
            4.2309561371803284e-01 -2.4563178420066833e-01</leafValues></_>
        <_>
          <internalNodes>
            0 -1 300 -1.2437700934242457e-04</internalNodes>
          <leafValues>
            -4.2525392770767212e-01 2.5586283206939697e-01</leafValues></_>
        <_>
          <internalNodes>
            0 -1 140 1.5920218080282211e-02</internalNodes>
          <leafValues>
            -1.7902535200119019e-01 6.2391018867492676e-01</leafValues></_>
        <_>
          <internalNodes>
            0 -1 223 7.4151938315480947e-04</internalNodes>
          <leafValues>
            1.7982839047908783e-01 -6.3418436050415039e-01</leafValues></_>
        <_>
          <internalNodes>
            0 -1 317 -7.3925548349507153e-05</internalNodes>
          <leafValues>
            -4.0694054961204529e-01 2.5283175706863403e-01</leafValues></_>
        <_>
          <internalNodes>
            0 -1 194 -7.0018311962485313e-03</internalNodes>
          <leafValues>
            5.3172278404235840e-01 -2.3083499073982239e-01</leafValues></_></weakClassifiers></_>
    <!-- stage 4 -->
    <_>
      <maxWeakCount>9</maxWeakCount>
      <stageThreshold>-1.6445004940032959e+00</stageThreshold>
      <weakClassifiers>
        <_>
          <internalNodes>
            0 -1 65 -5.0546079874038696e-02</internalNodes>
          <leafValues>
            2.8571428731083870e-02 -8.2499998807907104e-01</leafValues></_>
        <_>
          <internalNodes>
            0 -1 36 -6.8448990583419800e-02</internalNodes>
          <leafValues>
            5.2593803405761719e-01 -4.7165489196777344e-01</leafValues></_>
        <_>
          <internalNodes>
            0 -1 187 -2.0512800663709641e-02</internalNodes>
          <leafValues>
            6.3970839977264404e-01 -2.3030932247638702e-01</leafValues></_>
        <_>
          <internalNodes>
            0 -1 94 1.9185066223144531e-02</internalNodes>
          <leafValues>
            -1.5290206670761108e-01 7.1480309963226318e-01</leafValues></_>
        <_>
          <internalNodes>
            0 -1 87 1.0246774181723595e-03</internalNodes>
          <leafValues>
            2.0338775217533112e-01 -7.2637873888015747e-01</leafValues></_>
        <_>
          <internalNodes>
            0 -1 267 1.4733811840415001e-02</internalNodes>
          <leafValues>
            -2.3553594946861267e-01 5.3132039308547974e-01</leafValues></_>
        <_>
          <internalNodes>
            0 -1 308 2.6808577240444720e-04</internalNodes>
          <leafValues>
            -2.7080917358398438e-01 4.1264289617538452e-01</leafValues></_>
        <_>
          <internalNodes>
            0 -1 196 3.5966731957159936e-04</internalNodes>
          <leafValues>
            2.2724036872386932e-01 -5.1014018058776855e-01</leafValues></_>
        <_>
          <internalNodes>
            0 -1 131 -2.7215540409088135e-01</internalNodes>
          <leafValues>
            -9.5608055591583252e-01 1.1108278483152390e-01</leafValues></_></weakClassifiers></_>
    <!-- stage 5 -->
    <_>
      <maxWeakCount>9</maxWeakCount>
      <stageThreshold>-1.5057314634323120e+00</stageThreshold>
      <weakClassifiers>
        <_>
          <internalNodes>
            0 -1 159 4.3616674840450287e-02</internalNodes>
          <leafValues>
            -8.2953417301177979e-01 -1.3235294818878174e-01</leafValues></_>
        <_>
          <internalNodes>
            0 -1 270 5.9805296361446381e-02</internalNodes>
          <leafValues>
            -4.2951527237892151e-01 5.1325809955596924e-01</leafValues></_>
        <_>
          <internalNodes>
            0 -1 344 1.2544391211122274e-03</internalNodes>
          <leafValues>
            1.4141219854354858e-01 -8.2611733675003052e-01</leafValues></_>
        <_>
          <internalNodes>
            0 -1 351 1.2690632138401270e-03</internalNodes>
          <leafValues>
            8.4578491747379303e-02 -1.</leafValues></_>
        <_>
          <internalNodes>
            0 -1 268 5.3916767239570618e-02</internalNodes>
          <leafValues>
            -2.0584522187709808e-01 5.1453018188476563e-01</leafValues></_>
        <_>
          <internalNodes>
            0 -1 286 1.4303721487522125e-02</internalNodes>
          <leafValues>
            -1.9036492705345154e-01 6.2844634056091309e-01</leafValues></_>
        <_>
          <internalNodes>
            0 -1 0 -4.7679396811872721e-04</internalNodes>
          <leafValues>
            -6.4730888605117798e-01 1.6652597486972809e-01</leafValues></_>
        <_>
          <internalNodes>
            0 -1 297 -1.6235213726758957e-02</internalNodes>
          <leafValues>
            4.4786056876182556e-01 -2.3347529768943787e-01</leafValues></_>
        <_>
          <internalNodes>
            0 -1 264 1.7466708086431026e-03</internalNodes>
          <leafValues>
            1.2298573553562164e-01 -8.3521384000778198e-01</leafValues></_></weakClassifiers></_>
    <!-- stage 6 -->
    <_>
      <maxWeakCount>9</maxWeakCount>
      <stageThreshold>-1.4996020793914795e+00</stageThreshold>
      <weakClassifiers>
        <_>
          <internalNodes>
            0 -1 48 -4.1144114732742310e-01</internalNodes>
          <leafValues>
            3.5135135054588318e-01 -7.8339350223541260e-01</leafValues></_>
        <_>
          <internalNodes>
            0 -1 249 -5.7556606829166412e-02</internalNodes>
          <leafValues>
            3.5290122032165527e-01 -4.0948936343193054e-01</leafValues></_>
        <_>
          <internalNodes>
            0 -1 58 -1.1362956836819649e-02</internalNodes>
          <leafValues>
            3.3619847893714905e-01 -3.2231166958808899e-01</leafValues></_>
        <_>
          <internalNodes>
            0 -1 281 -8.9995865710079670e-04</internalNodes>
          <leafValues>
            -7.5596231222152710e-01 1.3966515660285950e-01</leafValues></_>
        <_>
          <internalNodes>
            0 -1 158 7.1454038843512535e-03</internalNodes>
          <leafValues>
            -1.9146192073822021e-01 5.4723322391510010e-01</leafValues></_>
        <_>
          <internalNodes>
            0 -1 351 -4.4416461605578661e-04</internalNodes>
          <leafValues>
            -6.6368037462234497e-01 2.2789476811885834e-01</leafValues></_>
        <_>
          <internalNodes>
            0 -1 205 -7.5144037604331970e-02</internalNodes>
          <leafValues>
            7.0284426212310791e-01 -1.7641898989677429e-01</leafValues></_>
        <_>
          <internalNodes>
            0 -1 236 -3.7091400008648634e-04</internalNodes>
          <leafValues>
            -5.6825643777847290e-01 2.1186037361621857e-01</leafValues></_>
        <_>
          <internalNodes>
            0 -1 352 1.4748673420399427e-03</internalNodes>
          <leafValues>
            9.4562254846096039e-02 -8.5445708036422729e-01</leafValues></_></weakClassifiers></_>
    <!-- stage 7 -->
    <_>
      <maxWeakCount>9</maxWeakCount>
      <stageThreshold>-1.4428182840347290e+00</stageThreshold>
      <weakClassifiers>
        <_>
          <internalNodes>
            0 -1 73 1.2078503146767616e-02</internalNodes>
          <leafValues>
            -8.4147667884826660e-01 -3.5714286565780640e-01</leafValues></_>
        <_>
          <internalNodes>
            0 -1 262 -2.5087774265557528e-03</internalNodes>
          <leafValues>
            3.0246010422706604e-01 -4.7083133459091187e-01</leafValues></_>
        <_>
          <internalNodes>
            0 -1 277 3.4474700689315796e-02</internalNodes>
          <leafValues>
            -2.8760778903961182e-01 4.7114777565002441e-01</leafValues></_>
        <_>
          <internalNodes>
            0 -1 347 -1.0673897340893745e-03</internalNodes>
          <leafValues>
            -8.0653619766235352e-01 1.2241248786449432e-01</leafValues></_>
        <_>
          <internalNodes>
            0 -1 85 -2.0737575832754374e-03</internalNodes>
          <leafValues>
            -6.6423219442367554e-01 1.6851398348808289e-01</leafValues></_>
        <_>
          <internalNodes>
            0 -1 290 -4.1824903746601194e-05</internalNodes>
          <leafValues>
            -4.3437555432319641e-01 2.0985054969787598e-01</leafValues></_>
        <_>
          <internalNodes>
            0 -1 245 -2.2898162715137005e-03</internalNodes>
          <leafValues>
            4.3588420748710632e-01 -2.1899333596229553e-01</leafValues></_>
        <_>
          <internalNodes>
            0 -1 188 -1.7583680164534599e-04</internalNodes>
          <leafValues>
            -4.5304340124130249e-01 2.4632276594638824e-01</leafValues></_>
        <_>
          <internalNodes>
            0 -1 310 -4.3503758497536182e-03</internalNodes>
          <leafValues>
            7.6134043931961060e-01 -1.5166193246841431e-01</leafValues></_></weakClassifiers></_>
    <!-- stage 8 -->
    <_>
      <maxWeakCount>12</maxWeakCount>
      <stageThreshold>-1.6697201728820801e+00</stageThreshold>
      <weakClassifiers>
        <_>
          <internalNodes>
            0 -1 258 -1.7180638387799263e-03</internalNodes>
          <leafValues>
            1.3846154510974884e-01 -8.0000001192092896e-01</leafValues></_>
        <_>
          <internalNodes>
            0 -1 330 2.4856365052983165e-04</internalNodes>
          <leafValues>
            -5.0002449750900269e-01 3.0231305956840515e-01</leafValues></_>
        <_>
          <internalNodes>
            0 -1 252 -1.8383001442998648e-03</internalNodes>
          <leafValues>
            5.7642626762390137e-01 -2.6558130979537964e-01</leafValues></_>
        <_>
          <internalNodes>
            0 -1 169 -1.8054882530122995e-03</internalNodes>
          <leafValues>
            4.5100951194763184e-01 -2.2851677238941193e-01</leafValues></_>
        <_>
          <internalNodes>
            0 -1 296 1.2183707440271974e-03</internalNodes>
          <leafValues>
            -1.8681569397449493e-01 5.1991641521453857e-01</leafValues></_>
        <_>
          <internalNodes>
            0 -1 306 1.7052184790372849e-02</internalNodes>
          <leafValues>
            -1.7379900813102722e-01 5.6120795011520386e-01</leafValues></_>
        <_>
          <internalNodes>
            0 -1 99 5.2480801939964294e-02</internalNodes>
          <leafValues>
            1.6286285221576691e-01 -6.4219975471496582e-01</leafValues></_>
        <_>
          <internalNodes>
            0 -1 136 -7.0182350464165211e-04</internalNodes>
          <leafValues>
            -3.8140949606895447e-01 4.0291571617126465e-01</leafValues></_>
        <_>
          <internalNodes>
            0 -1 337 -2.9256632551550865e-03</internalNodes>
          <leafValues>
            5.0777536630630493e-01 -2.4982333183288574e-01</leafValues></_>
        <_>
          <internalNodes>
            0 -1 183 -5.3475878667086363e-04</internalNodes>
          <leafValues>
            4.4019588828086853e-01 -1.8762001395225525e-01</leafValues></_>
        <_>
          <internalNodes>
            0 -1 220 4.8694219440221786e-03</internalNodes>
          <leafValues>
            2.4043545126914978e-01 -3.9460453391075134e-01</leafValues></_>
        <_>
          <internalNodes>
            0 -1 74 3.5303470212966204e-04</internalNodes>
          <leafValues>
            2.0106367766857147e-01 -4.8787933588027954e-01</leafValues></_></weakClassifiers></_>
    <!-- stage 9 -->
    <_>
      <maxWeakCount>16</maxWeakCount>
      <stageThreshold>-1.8365958929061890e+00</stageThreshold>
      <weakClassifiers>
        <_>
          <internalNodes>
            0 -1 118 -1.0772838722914457e-03</internalNodes>
          <leafValues>
            -4.4516128301620483e-01 -8.5868263244628906e-01</leafValues></_>
        <_>
          <internalNodes>
            0 -1 144 -1.4486227184534073e-02</internalNodes>
          <leafValues>
            1.8792782723903656e-01 -5.0211286544799805e-01</leafValues></_>
        <_>
          <internalNodes>
            0 -1 137 -1.8441181164234877e-03</internalNodes>
          <leafValues>
            4.2601811885833740e-01 -2.6805555820465088e-01</leafValues></_>
        <_>
          <internalNodes>
            0 -1 276 4.6473479596897960e-04</internalNodes>
          <leafValues>
            -2.2863119840621948e-01 3.9273533225059509e-01</leafValues></_>
        <_>
          <internalNodes>
            0 -1 275 -2.3478795774281025e-03</internalNodes>
          <leafValues>
            5.5782306194305420e-01 -1.4778563380241394e-01</leafValues></_>
        <_>
          <internalNodes>
            0 -1 110 -4.8539079725742340e-03</internalNodes>
          <leafValues>
            5.5511838197708130e-01 -1.1254623532295227e-01</leafValues></_>
        <_>
          <internalNodes>
            0 -1 52 7.1319207549095154e-02</internalNodes>
          <leafValues>
            9.5320060849189758e-02 -7.8225213289260864e-01</leafValues></_>
        <_>
          <internalNodes>
            0 -1 98 -4.0137114410754293e-05</internalNodes>
          <leafValues>
            3.0296054482460022e-01 -2.3956917226314545e-01</leafValues></_>
        <_>
          <internalNodes>
            0 -1 171 3.9371596649289131e-03</internalNodes>
          <leafValues>
            2.0872808992862701e-01 -3.4396907687187195e-01</leafValues></_>
        <_>
          <internalNodes>
            0 -1 278 9.1054127551615238e-04</internalNodes>
          <leafValues>
            -1.4953419566154480e-01 4.0350276231765747e-01</leafValues></_>
        <_>
          <internalNodes>
            0 -1 84 6.1384949367493391e-04</internalNodes>
          <leafValues>
            1.5865409374237061e-01 -4.5405426621437073e-01</leafValues></_>
        <_>
          <internalNodes>
            0 -1 68 1.7346968525089324e-04</internalNodes>
          <leafValues>
            2.4746744334697723e-01 -2.6684260368347168e-01</leafValues></_>
        <_>
          <internalNodes>
            0 -1 314 2.6947301812469959e-03</internalNodes>
          <leafValues>
            -1.4418314397335052e-01 5.4214221239089966e-01</leafValues></_>
        <_>
          <internalNodes>
            0 -1 40 2.2004771977663040e-02</internalNodes>
          <leafValues>
            1.7522145807743073e-01 -4.5918017625808716e-01</leafValues></_>
        <_>
          <internalNodes>
            0 -1 269 7.6514703687280416e-04</internalNodes>
          <leafValues>
            -1.8754796683788300e-01 4.3656486272811890e-01</leafValues></_>
        <_>
          <internalNodes>
            0 -1 350 -1.3999238144606352e-03</internalNodes>
          <leafValues>
            -7.4831277132034302e-01 1.1666157841682434e-01</leafValues></_></weakClassifiers></_>
    <!-- stage 10 -->
    <_>
      <maxWeakCount>38</maxWeakCount>
      <stageThreshold>-2.1842925548553467e+00</stageThreshold>
      <weakClassifiers>
        <_>
          <internalNodes>
            0 -1 253 3.0024198349565268e-04</internalNodes>
          <leafValues>
            -8.5654884576797485e-01 -1.6939890384674072e-01</leafValues></_>
        <_>
          <internalNodes>
            0 -1 326 -3.2542811823077500e-05</internalNodes>
          <leafValues>
            2.8634163737297058e-01 -6.4283937215805054e-01</leafValues></_>
        <_>
          <internalNodes>
            0 -1 295 1.4392266166396439e-04</internalNodes>
          <leafValues>
            -4.3385764956474304e-01 3.8463047146797180e-01</leafValues></_>
        <_>
          <internalNodes>
            0 -1 203 -5.7041831314563751e-04</internalNodes>
          <leafValues>
            4.6987286210060120e-01 -2.2861680388450623e-01</leafValues></_>
        <_>
          <internalNodes>
            0 -1 218 -7.5979100074619055e-04</internalNodes>
          <leafValues>
            4.9067628383636475e-01 -1.7005987465381622e-01</leafValues></_>
        <_>
          <internalNodes>
            0 -1 323 6.8346494808793068e-03</internalNodes>
          <leafValues>
            1.5555478632450104e-01 -5.7102161645889282e-01</leafValues></_>
        <_>
          <internalNodes>
            0 -1 292 4.1320157470181584e-04</internalNodes>
          <leafValues>
            -2.0126733183860779e-01 4.0635675191879272e-01</leafValues></_>
        <_>
          <internalNodes>
            0 -1 57 1.5974007546901703e-03</internalNodes>
          <leafValues>
            1.5107078850269318e-01 -5.6496965885162354e-01</leafValues></_>
        <_>
          <internalNodes>
            0 -1 104 -1.1985467281192541e-03</internalNodes>
          <leafValues>
            6.1676740646362305e-01 -1.2966294586658478e-01</leafValues></_>
        <_>
          <internalNodes>
            0 -1 338 4.1824579238891602e-03</internalNodes>
          <leafValues>
            8.2650035619735718e-02 -9.6756058931350708e-01</leafValues></_>
        <_>
          <internalNodes>
            0 -1 106 -3.5149878385709599e-05</internalNodes>
          <leafValues>
            3.6860615015029907e-01 -1.9648119807243347e-01</leafValues></_>
        <_>
          <internalNodes>
            0 -1 160 -1.3130384031683207e-03</internalNodes>
          <leafValues>
            -5.5551189184188843e-01 1.2269613146781921e-01</leafValues></_>
        <_>
          <internalNodes>
            0 -1 149 -2.5726775638759136e-03</internalNodes>
          <leafValues>
            7.5155496597290039e-01 -8.2059696316719055e-02</leafValues></_>
        <_>
          <internalNodes>
            0 -1 170 -1.2714947573840618e-02</internalNodes>
          <leafValues>
            -4.2385566234588623e-01 2.0136588811874390e-01</leafValues></_>
        <_>
          <internalNodes>
            0 -1 332 -2.2636365145444870e-02</internalNodes>
          <leafValues>
            7.0584356784820557e-01 -1.0295753926038742e-01</leafValues></_>
        <_>
          <internalNodes>
            0 -1 162 2.1435874514281750e-03</internalNodes>
          <leafValues>
            9.2397272586822510e-02 -7.5504934787750244e-01</leafValues></_>
        <_>
          <internalNodes>
            0 -1 181 -1.5676225302740932e-04</internalNodes>
          <leafValues>
            4.3191233277320862e-01 -1.8408347666263580e-01</leafValues></_>
        <_>
          <internalNodes>
            0 -1 111 -2.4490472860634327e-03</internalNodes>
          <leafValues>
            -3.7361061573028564e-01 1.7614834010601044e-01</leafValues></_>
        <_>
          <internalNodes>
            0 -1 41 -4.3628242611885071e-01</internalNodes>
          <leafValues>
            7.2708809375762939e-01 -9.5441237092018127e-02</leafValues></_>
        <_>
          <internalNodes>
            0 -1 239 3.3540934324264526e-02</internalNodes>
          <leafValues>
            8.2638099789619446e-02 -8.1953489780426025e-01</leafValues></_>
        <_>
          <internalNodes>
            0 -1 123 7.9488251358270645e-03</internalNodes>
          <leafValues>
            6.4298622310161591e-02 -7.0207577943801880e-01</leafValues></_>
        <_>
          <internalNodes>
            0 -1 134 2.0664087496697903e-03</internalNodes>
          <leafValues>
            -1.4686991274356842e-01 4.9013105034828186e-01</leafValues></_>
        <_>
          <internalNodes>
            0 -1 154 -4.8221848905086517e-02</internalNodes>
          <leafValues>
            -1. 6.9900214672088623e-02</leafValues></_>
        <_>
          <internalNodes>
            0 -1 179 -8.5677849128842354e-03</internalNodes>
          <leafValues>
            -3.7024971842765808e-01 1.2228995561599731e-01</leafValues></_>
        <_>
          <internalNodes>
            0 -1 329 3.3325042750220746e-05</internalNodes>
          <leafValues>
            -1.6038949787616730e-01 3.8072550296783447e-01</leafValues></_>
        <_>
          <internalNodes>
            0 -1 184 1.5090262517333031e-02</internalNodes>
          <leafValues>
            1.1042986065149307e-01 -5.7006013393402100e-01</leafValues></_>
        <_>
          <internalNodes>
            0 -1 274 8.0447853542864323e-04</internalNodes>
          <leafValues>
            -1.0726533085107803e-01 6.7352187633514404e-01</leafValues></_>
        <_>
          <internalNodes>
            0 -1 299 2.4488062990712933e-05</internalNodes>
          <leafValues>
            1.6863542795181274e-01 -3.2312005758285522e-01</leafValues></_>
        <_>
          <internalNodes>
            0 -1 204 2.9764794817310758e-05</internalNodes>
          <leafValues>
            -1.4856794476509094e-01 3.8562440872192383e-01</leafValues></_>
        <_>
          <internalNodes>
            0 -1 22 -4.6649253368377686e-01</internalNodes>
          <leafValues>
            -7.9994636774063110e-01 6.3411496579647064e-02</leafValues></_>
        <_>
          <internalNodes>
            0 -1 260 -1.7661503516137600e-03</internalNodes>
          <leafValues>
            7.5419110059738159e-01 -7.3546692728996277e-02</leafValues></_>
        <_>
          <internalNodes>
            0 -1 77 -7.2920755483210087e-03</internalNodes>
          <leafValues>
            -6.6268759965896606e-01 9.3572854995727539e-02</leafValues></_>
        <_>
          <internalNodes>
            0 -1 214 -1.5703467652201653e-03</internalNodes>
          <leafValues>
            5.2250725030899048e-01 -9.4808541238307953e-02</leafValues></_>
        <_>
          <internalNodes>
            0 -1 105 -6.5693340729922056e-04</internalNodes>
          <leafValues>
            -4.8640763759613037e-01 1.0409253090620041e-01</leafValues></_>
        <_>
          <internalNodes>
            0 -1 215 -4.9771210178732872e-03</internalNodes>
          <leafValues>
            7.4572610855102539e-01 -6.2290277332067490e-02</leafValues></_>
        <_>
          <internalNodes>
            0 -1 167 -7.6659038662910461e-02</internalNodes>
          <leafValues>
            -8.8855785131454468e-01 5.2635069936513901e-02</leafValues></_>
        <_>
          <internalNodes>
            0 -1 313 -3.5289566963911057e-02</internalNodes>
          <leafValues>
            5.3351438045501709e-01 -9.1526918113231659e-02</leafValues></_>
        <_>
          <internalNodes>
            0 -1 336 4.8625640920363367e-04</internalNodes>
          <leafValues>
            1.1106120049953461e-01 -4.5412448048591614e-01</leafValues></_></weakClassifiers></_>
    <!-- stage 11 -->
    <_>
      <maxWeakCount>100</maxWeakCount>
      <stageThreshold>-2.5957975387573242e+00</stageThreshold>
      <weakClassifiers>
        <_>
          <internalNodes>
            0 -1 86 -1.8962730246130377e-04</internalNodes>
          <leafValues>
            6.3492065668106079e-01 -9.1756623983383179e-01</leafValues></_>
        <_>
          <internalNodes>
            0 -1 263 -2.9431033908622339e-05</internalNodes>
          <leafValues>
            8.9118063449859619e-01 -7.5613683462142944e-01</leafValues></_>
        <_>
          <internalNodes>
            0 -1 164 8.3230734162498266e-05</internalNodes>
          <leafValues>
            -5.8063411712646484e-01 7.9913663864135742e-01</leafValues></_>
        <_>
          <internalNodes>
            0 -1 172 -5.9208588209003210e-04</internalNodes>
          <leafValues>
            9.0070021152496338e-01 -2.8511479496955872e-01</leafValues></_>
        <_>
          <internalNodes>
            0 -1 113 4.8997670091921464e-05</internalNodes>
          <leafValues>
            -1.0701007395982742e-01 9.3457764387130737e-01</leafValues></_>
        <_>
          <internalNodes>
            0 -1 340 1.2349266398814507e-05</internalNodes>
          <leafValues>
            -6.1000052839517593e-02 8.5035312175750732e-01</leafValues></_>
        <_>
          <internalNodes>
            0 -1 71 -2.4337330833077431e-03</internalNodes>
          <leafValues>
            -7.0118808746337891e-01 1.2083975970745087e-01</leafValues></_>
        <_>
          <internalNodes>
            0 -1 186 -1.7438405484426767e-04</internalNodes>
          <leafValues>
            8.3095788955688477e-01 -1.0293877124786377e-01</leafValues></_>
        <_>
          <internalNodes>
            0 -1 298 3.4235483035445213e-03</internalNodes>
          <leafValues>
            7.3835134506225586e-02 -9.7217172384262085e-01</leafValues></_>
        <_>
          <internalNodes>
            0 -1 283 5.2351053454913199e-05</internalNodes>
          <leafValues>
            -7.8174121677875519e-02 8.7976527214050293e-01</leafValues></_>
        <_>
          <internalNodes>
            0 -1 178 1.5404578298330307e-02</internalNodes>
          <leafValues>
            7.9144537448883057e-02 -7.9770046472549438e-01</leafValues></_>
        <_>
          <internalNodes>
            0 -1 320 2.0927339210174978e-04</internalNodes>
          <leafValues>
            -5.1855433732271194e-02 8.4177654981613159e-01</leafValues></_>
        <_>
          <internalNodes>
            0 -1 217 -2.4222782813012600e-03</internalNodes>
          <leafValues>
            -7.2404187917709351e-01 6.1743017286062241e-02</leafValues></_>
        <_>
          <internalNodes>
            0 -1 339 1.7550330085214227e-04</internalNodes>
          <leafValues>
            -4.6486333012580872e-02 7.8438514471054077e-01</leafValues></_>
        <_>
          <internalNodes>
            0 -1 108 2.2034619003534317e-02</internalNodes>
          <leafValues>
            4.1346453130245209e-02 -8.8398551940917969e-01</leafValues></_>
        <_>
          <internalNodes>
            0 -1 55 8.5423520067706704e-04</internalNodes>
          <leafValues>
            -2.7431616559624672e-02 9.6217846870422363e-01</leafValues></_>
        <_>
          <internalNodes>
            0 -1 248 1.7422095406800508e-03</internalNodes>
          <leafValues>
            4.2484674602746964e-02 -6.4861923456192017e-01</leafValues></_>
        <_>
          <internalNodes>
            0 -1 191 2.9199271011748351e-05</internalNodes>
          <leafValues>
            -3.7161067128181458e-02 8.1785535812377930e-01</leafValues></_>
        <_>
          <internalNodes>
            0 -1 331 3.7259003147482872e-03</internalNodes>
          <leafValues>
            2.6107732206583023e-02 -8.6770230531692505e-01</leafValues></_>
        <_>
          <internalNodes>
            0 -1 230 -3.6139679141342640e-03</internalNodes>
          <leafValues>
            9.5301479101181030e-01 -1.8002849072217941e-02</leafValues></_>
        <_>
          <internalNodes>
            0 -1 124 -5.0558121874928474e-03</internalNodes>
          <leafValues>
            -8.1002801656723022e-01 2.4798139929771423e-02</leafValues></_>
        <_>
          <internalNodes>
            0 -1 192 -1.4886187855154276e-03</internalNodes>
          <leafValues>
            9.0758746862411499e-01 -1.3525150716304779e-02</leafValues></_>
        <_>
          <internalNodes>
            0 -1 116 2.5383883621543646e-04</internalNodes>
          <leafValues>
            1.5359764918684959e-02 -8.5539066791534424e-01</leafValues></_>
        <_>
          <internalNodes>
            0 -1 289 -2.1786727302242070e-05</internalNodes>
          <leafValues>
            9.3086743354797363e-01 -9.4417398795485497e-03</leafValues></_>
        <_>
          <internalNodes>
            0 -1 28 1.9379262812435627e-03</internalNodes>
          <leafValues>
            7.8528504818677902e-03 -9.1707426309585571e-01</leafValues></_>
        <_>
          <internalNodes>
            0 -1 37 1.1988666665274650e-04</internalNodes>
          <leafValues>
            -2.2344759199768305e-03 1.</leafValues></_>
        <_>
          <internalNodes>
            0 -1 125 1.5123207049327902e-05</internalNodes>
          <leafValues>
            7.6811113394796848e-03 -1.</leafValues></_>
        <_>
          <internalNodes>
            0 -1 59 2.1628750255331397e-04</internalNodes>
          <leafValues>
            -3.2509781885892153e-03 1.</leafValues></_>
        <_>
          <internalNodes>
            0 -1 100 7.0360675454139709e-04</internalNodes>
          <leafValues>
            2.2354368120431900e-03 -1.</leafValues></_>
        <_>
          <internalNodes>
            0 -1 56 -5.0111301243305206e-04</internalNodes>
          <leafValues>
            1. -2.9272229876369238e-03</leafValues></_>
        <_>
          <internalNodes>
            0 -1 56 -2.5279676265199669e-05</internalNodes>
          <leafValues>
            -1. 2.0989433396607637e-03</leafValues></_>
        <_>
          <internalNodes>
            0 -1 168 -3.5426794056547806e-05</internalNodes>
          <leafValues>
            1. -7.4294133810326457e-04</leafValues></_>
        <_>
          <internalNodes>
            0 -1 198 -6.0768801631638780e-05</internalNodes>
          <leafValues>
            -1. 5.5269186850637197e-04</leafValues></_>
        <_>
          <internalNodes>
            0 -1 199 -1.5705988043919206e-03</internalNodes>
          <leafValues>
            1. -7.2172965155914426e-04</leafValues></_>
        <_>
          <internalNodes>
            0 -1 150 -6.6611948423087597e-03</internalNodes>
          <leafValues>
            -1. 3.9752468001097441e-04</leafValues></_>
        <_>
          <internalNodes>
            0 -1 112 -1.1730463244020939e-02</internalNodes>
          <leafValues>
            1. -1.2732832692563534e-03</leafValues></_>
        <_>
          <internalNodes>
            0 -1 38 -7.2119780816137791e-03</internalNodes>
          <leafValues>
            -1. 1.3546417467296124e-03</leafValues></_>
        <_>
          <internalNodes>
            0 -1 38 -3.6664300132542849e-03</internalNodes>
          <leafValues>
            1. 8.2860768246817429e-10</leafValues></_>
        <_>
          <internalNodes>
            0 -1 38 -3.5527972504496574e-03</internalNodes>
          <leafValues>
            -1. 4.2754686814842294e-15</leafValues></_>
        <_>
          <internalNodes>
            0 -1 38 -3.6664300132542849e-03</internalNodes>
          <leafValues>
            1. -2.4479290292131906e-15</leafValues></_>
        <_>
          <internalNodes>
            0 -1 38 -3.5527972504496574e-03</internalNodes>
          <leafValues>
            -1. -5.1770530916405485e-15</leafValues></_>
        <_>
          <internalNodes>
            0 -1 38 -3.6664300132542849e-03</internalNodes>
          <leafValues>
            1. -2.5117838784913769e-15</leafValues></_>
        <_>
          <internalNodes>
            0 -1 38 -3.5527972504496574e-03</internalNodes>
          <leafValues>
            -1. 1.1503517187210974e-14</leafValues></_>
        <_>
          <internalNodes>
            0 -1 38 -3.6664300132542849e-03</internalNodes>
          <leafValues>
            1. -4.0572132784487402e-15</leafValues></_>
        <_>
          <internalNodes>
            0 -1 38 -3.5527972504496574e-03</internalNodes>
          <leafValues>
            -1. -5.7231894428440202e-15</leafValues></_>
        <_>
          <internalNodes>
            0 -1 38 -3.6664300132542849e-03</internalNodes>
          <leafValues>
            1. -2.4184220012208766e-15</leafValues></_>
        <_>
          <internalNodes>
            0 -1 38 -3.5527972504496574e-03</internalNodes>
          <leafValues>
            -1. 1.1781863225107051e-14</leafValues></_>
        <_>
          <internalNodes>
            0 -1 38 -3.6664300132542849e-03</internalNodes>
          <leafValues>
            1. -4.2796686943531899e-15</leafValues></_>
        <_>
          <internalNodes>
            0 -1 38 -3.5527972504496574e-03</internalNodes>
          <leafValues>
            -1. -5.1538765761377763e-15</leafValues></_>
        <_>
          <internalNodes>
            0 -1 38 -3.6664300132542849e-03</internalNodes>
          <leafValues>
            1. -2.6443350056160183e-15</leafValues></_>
        <_>
          <internalNodes>
            0 -1 38 -3.5527972504496574e-03</internalNodes>
          <leafValues>
            -1. 1.1733215581847395e-14</leafValues></_>
        <_>
          <internalNodes>
            0 -1 38 -3.6664300132542849e-03</internalNodes>
          <leafValues>
            1. -4.1918390010194442e-15</leafValues></_>
        <_>
          <internalNodes>
            0 -1 38 -3.5527972504496574e-03</internalNodes>
          <leafValues>
            -1. -5.2619567096580042e-15</leafValues></_>
        <_>
          <internalNodes>
            0 -1 38 -3.6664300132542849e-03</internalNodes>
          <leafValues>
            1. -2.6408772053670895e-15</leafValues></_>
        <_>
          <internalNodes>
            0 -1 38 -3.5527972504496574e-03</internalNodes>
          <leafValues>
            -1. 1.1764194117827326e-14</leafValues></_>
        <_>
          <internalNodes>
            0 -1 38 -3.6664300132542849e-03</internalNodes>
          <leafValues>
            1. -4.1823878073939807e-15</leafValues></_>
        <_>
          <internalNodes>
            0 -1 38 -3.5527972504496574e-03</internalNodes>
          <leafValues>
            -1. -5.0825119327492334e-15</leafValues></_>
        <_>
          <internalNodes>
            0 -1 38 -3.6664300132542849e-03</internalNodes>
          <leafValues>
            1. -2.1383359458929021e-15</leafValues></_>
        <_>
          <internalNodes>
            0 -1 38 -3.5527972504496574e-03</internalNodes>
          <leafValues>
            -1. 1.1760981321858391e-14</leafValues></_>
        <_>
          <internalNodes>
            0 -1 38 -3.6664300132542849e-03</internalNodes>
          <leafValues>
            1. -4.1893034078918385e-15</leafValues></_>
        <_>
          <internalNodes>
            0 -1 38 -3.5527972504496574e-03</internalNodes>
          <leafValues>
            -1. -5.2594325514751863e-15</leafValues></_>
        <_>
          <internalNodes>
            0 -1 38 -3.6664300132542849e-03</internalNodes>
          <leafValues>
            1. -2.1980416042789632e-15</leafValues></_>
        <_>
          <internalNodes>
            0 -1 38 -3.5527972504496574e-03</internalNodes>
          <leafValues>
            -1. 1.1702237045867463e-14</leafValues></_>
        <_>
          <internalNodes>
            0 -1 38 -3.6664300132542849e-03</internalNodes>
          <leafValues>
            1. -4.1893034078918385e-15</leafValues></_>
        <_>
          <internalNodes>
            0 -1 38 -3.5527972504496574e-03</internalNodes>
          <leafValues>
            -1. -5.2594325514751863e-15</leafValues></_>
        <_>
          <internalNodes>
            0 -1 38 -3.6664300132542849e-03</internalNodes>
          <leafValues>
            1. -2.1980416042789632e-15</leafValues></_>
        <_>
          <internalNodes>
            0 -1 38 -3.5527972504496574e-03</internalNodes>
          <leafValues>
            -1. 1.1702237045867463e-14</leafValues></_>
        <_>
          <internalNodes>
            0 -1 38 -3.6664300132542849e-03</internalNodes>
          <leafValues>
            1. -4.3006463123248899e-15</leafValues></_>
        <_>
          <internalNodes>
            0 -1 38 -3.5527972504496574e-03</internalNodes>
          <leafValues>
            -1. -5.2587439136890686e-15</leafValues></_>
        <_>
          <internalNodes>
            0 -1 38 -3.6664300132542849e-03</internalNodes>
          <leafValues>
            1. -2.1973500018775301e-15</leafValues></_>
        <_>
          <internalNodes>
            0 -1 38 -3.5527972504496574e-03</internalNodes>
          <leafValues>
            -1. 1.1702925683653581e-14</leafValues></_>
        <_>
          <internalNodes>
            0 -1 38 -3.6664300132542849e-03</internalNodes>
          <leafValues>
            1. -4.3004159193632367e-15</leafValues></_>
        <_>
          <internalNodes>
            0 -1 38 -3.5527972504496574e-03</internalNodes>
          <leafValues>
            -1. -5.2585143677603627e-15</leafValues></_>
        <_>
          <internalNodes>
            0 -1 38 -3.6664300132542849e-03</internalNodes>
          <leafValues>
            1. -2.1948141969916875e-15</leafValues></_>
        <_>
          <internalNodes>
            0 -1 38 -3.5527972504496574e-03</internalNodes>
          <leafValues>
            -1. 1.1705449841836399e-14</leafValues></_>
        <_>
          <internalNodes>
            0 -1 38 -3.6664300132542849e-03</internalNodes>
          <leafValues>
            1. -4.2978799027191573e-15</leafValues></_>
        <_>
          <internalNodes>
            0 -1 38 -3.5527972504496574e-03</internalNodes>
          <leafValues>
            -1. -5.2307486277493667e-15</leafValues></_>
        <_>
          <internalNodes>
            0 -1 38 -3.6664300132542849e-03</internalNodes>
          <leafValues>
            1. -2.1945835922717975e-15</leafValues></_>
        <_>
          <internalNodes>
            0 -1 38 -3.5527972504496574e-03</internalNodes>
          <leafValues>
            -1. 1.1764194117827326e-14</leafValues></_>
        <_>
          <internalNodes>
            0 -1 38 -3.6664300132542849e-03</internalNodes>
          <leafValues>
            1. -4.2978799027191573e-15</leafValues></_>
        <_>
          <internalNodes>
            0 -1 38 -3.5527972504496574e-03</internalNodes>
          <leafValues>
            -1. -5.2307486277493667e-15</leafValues></_>
        <_>
          <internalNodes>
            0 -1 38 -3.6664300132542849e-03</internalNodes>
          <leafValues>
            1. -2.1945835922717975e-15</leafValues></_>
        <_>
          <internalNodes>
            0 -1 38 -3.5527972504496574e-03</internalNodes>
          <leafValues>
            -1. 1.1764194117827326e-14</leafValues></_>
        <_>
          <internalNodes>
            0 -1 38 -3.6664300132542849e-03</internalNodes>
          <leafValues>
            1. -4.2978799027191573e-15</leafValues></_>
        <_>
          <internalNodes>
            0 -1 38 -3.5527972504496574e-03</internalNodes>
          <leafValues>
            -1. -5.2307486277493667e-15</leafValues></_>
        <_>
          <internalNodes>
            0 -1 38 -3.6664300132542849e-03</internalNodes>
          <leafValues>
            1. -2.1945835922717975e-15</leafValues></_>
        <_>
          <internalNodes>
            0 -1 38 -3.5527972504496574e-03</internalNodes>
          <leafValues>
            -1. 1.1764194117827326e-14</leafValues></_>
        <_>
          <internalNodes>
            0 -1 38 -3.6664300132542849e-03</internalNodes>
          <leafValues>
            1. -4.2978799027191573e-15</leafValues></_>
        <_>
          <internalNodes>
            0 -1 38 -3.5527972504496574e-03</internalNodes>
          <leafValues>
            -1. -5.2307486277493667e-15</leafValues></_>
        <_>
          <internalNodes>
            0 -1 38 -3.6664300132542849e-03</internalNodes>
          <leafValues>
            1. -2.1945835922717975e-15</leafValues></_>
        <_>
          <internalNodes>
            0 -1 38 -3.5527972504496574e-03</internalNodes>
          <leafValues>
            -1. 1.1712104132670029e-14</leafValues></_>
        <_>
          <internalNodes>
            0 -1 38 -3.6664300132542849e-03</internalNodes>
          <leafValues>
            1. -4.2971883003177242e-15</leafValues></_>
        <_>
          <internalNodes>
            0 -1 38 -3.5527972504496574e-03</internalNodes>
          <leafValues>
            -1. -5.2300604134797226e-15</leafValues></_>
        <_>
          <internalNodes>
            0 -1 38 -3.6664300132542849e-03</internalNodes>
          <leafValues>
            1. -2.1878983847355930e-15</leafValues></_>
        <_>
          <internalNodes>
            0 -1 38 -3.5527972504496574e-03</internalNodes>
          <leafValues>
            -1. 1.1712333678598735e-14</leafValues></_>
        <_>
          <internalNodes>
            0 -1 38 -3.6664300132542849e-03</internalNodes>
          <leafValues>
            1. -4.1863066053244528e-15</leafValues></_>
        <_>
          <internalNodes>
            0 -1 38 -3.5527972504496574e-03</internalNodes>
          <leafValues>
            -1. -5.2300604134797226e-15</leafValues></_>
        <_>
          <internalNodes>
            0 -1 38 -3.6664300132542849e-03</internalNodes>
          <leafValues>
            1. -2.1878983847355930e-15</leafValues></_>
        <_>
          <internalNodes>
            0 -1 38 -3.5527972504496574e-03</internalNodes>
          <leafValues>
            -1. 1.1712333678598735e-14</leafValues></_>
        <_>
          <internalNodes>
            0 -1 38 -3.6664300132542849e-03</internalNodes>
          <leafValues>
            1. -4.1853846099613665e-15</leafValues></_></weakClassifiers></_>
    <!-- stage 12 -->
    <_>
      <maxWeakCount>100</maxWeakCount>
      <stageThreshold>-2.6176888942718506e+00</stageThreshold>
      <weakClassifiers>
        <_>
          <internalNodes>
            0 -1 145 -3.3392414916306734e-03</internalNodes>
          <leafValues>
            6.0563379526138306e-01 -9.3818545341491699e-01</leafValues></_>
        <_>
          <internalNodes>
            0 -1 326 -2.6348981918999925e-05</internalNodes>
          <leafValues>
            6.8067276477813721e-01 -8.1423842906951904e-01</leafValues></_>
        <_>
          <internalNodes>
            0 -1 135 -9.1900420375168324e-04</internalNodes>
          <leafValues>
            9.0714687108993530e-01 -5.3499555587768555e-01</leafValues></_>
        <_>
          <internalNodes>
            0 -1 30 -1.6854641216923483e-05</internalNodes>
          <leafValues>
            8.5455721616744995e-01 -2.2699186205863953e-01</leafValues></_>
        <_>
          <internalNodes>
            0 -1 250 1.3089513231534511e-04</internalNodes>
          <leafValues>
            -1.3045156002044678e-01 8.7111717462539673e-01</leafValues></_>
        <_>
          <internalNodes>
            0 -1 242 -2.6683916803449392e-04</internalNodes>
          <leafValues>
            9.0101456642150879e-01 -6.8905934691429138e-02</leafValues></_>
        <_>
          <internalNodes>
            0 -1 233 7.2754304856061935e-03</internalNodes>
          <leafValues>
            1.3005976378917694e-01 -9.0097278356552124e-01</leafValues></_>
        <_>
          <internalNodes>
            0 -1 302 7.5298838783055544e-04</internalNodes>
          <leafValues>
            -1.1529674381017685e-01 8.0281442403793335e-01</leafValues></_>
        <_>
          <internalNodes>
            0 -1 228 -5.7193478569388390e-03</internalNodes>
          <leafValues>
            -8.4576076269149780e-01 9.5728032290935516e-02</leafValues></_>
        <_>
          <internalNodes>
            0 -1 156 -3.1316124368458986e-03</internalNodes>
          <leafValues>
            9.1834688186645508e-01 -7.5204037129878998e-02</leafValues></_>
        <_>
          <internalNodes>
            0 -1 212 9.7076309612020850e-04</internalNodes>
          <leafValues>
            7.6326355338096619e-02 -7.3576676845550537e-01</leafValues></_>
        <_>
          <internalNodes>
            0 -1 319 -4.5514595694839954e-03</internalNodes>
          <leafValues>
            8.8762551546096802e-01 -5.1587507128715515e-02</leafValues></_>
        <_>
          <internalNodes>
            0 -1 255 1.6879137605428696e-02</internalNodes>
          <leafValues>
            5.0758562982082367e-02 -8.9032065868377686e-01</leafValues></_>
        <_>
          <internalNodes>
            0 -1 222 1.7266042996197939e-03</internalNodes>
          <leafValues>
            -4.6031270176172256e-02 9.5339113473892212e-01</leafValues></_>
        <_>
          <internalNodes>
            0 -1 175 1.6329316713381559e-04</internalNodes>
          <leafValues>
            4.6583682298660278e-02 -6.9997817277908325e-01</leafValues></_>
        <_>
          <internalNodes>
            0 -1 207 -1.7713510897010565e-04</internalNodes>
          <leafValues>
            8.4504270553588867e-01 -3.8506429642438889e-02</leafValues></_>
        <_>
          <internalNodes>
            0 -1 247 2.6889564469456673e-03</internalNodes>
          <leafValues>
            3.3940687775611877e-02 -7.8154379129409790e-01</leafValues></_>
        <_>
          <internalNodes>
            0 -1 133 -9.5276569481939077e-04</internalNodes>
          <leafValues>
            8.9148914813995361e-01 -3.0869813635945320e-02</leafValues></_>
        <_>
          <internalNodes>
            0 -1 19 1.3755903346464038e-03</internalNodes>
          <leafValues>
            2.3707510903477669e-02 -7.5993204116821289e-01</leafValues></_>
        <_>
          <internalNodes>
            0 -1 177 -2.6375833840575069e-05</internalNodes>
          <leafValues>
            9.4463306665420532e-01 -1.3150196522474289e-02</leafValues></_>
        <_>
          <internalNodes>
            0 -1 288 6.4236330217681825e-05</internalNodes>
          <leafValues>
            1.4268195256590843e-02 -9.3695813417434692e-01</leafValues></_>
        <_>
          <internalNodes>
            0 -1 315 3.2827648101374507e-04</internalNodes>
          <leafValues>
            -1.2379557825624943e-02 8.9063882827758789e-01</leafValues></_>
        <_>
          <internalNodes>
            0 -1 155 2.3888977011665702e-04</internalNodes>
          <leafValues>
            6.5094442106783390e-03 -9.3318927288055420e-01</leafValues></_>
        <_>
          <internalNodes>
            0 -1 211 -7.3636299930512905e-04</internalNodes>
          <leafValues>
            9.3754088878631592e-01 -6.4055183902382851e-03</leafValues></_>
        <_>
          <internalNodes>
            0 -1 348 9.1766187324537896e-06</internalNodes>
          <leafValues>
            6.9385468959808350e-03 -1.</leafValues></_>
        <_>
          <internalNodes>
            0 -1 279 -1.0100528743350878e-04</internalNodes>
          <leafValues>
            9.3995648622512817e-01 -4.4547999277710915e-03</leafValues></_>
        <_>
          <internalNodes>
            0 -1 31 -2.8369629289954901e-03</internalNodes>
          <leafValues>
            -9.3628954887390137e-01 5.4518701508641243e-03</leafValues></_>
        <_>
          <internalNodes>
            0 -1 210 4.0101160993799567e-04</internalNodes>
          <leafValues>
            -2.6125309523195028e-03 1.</leafValues></_>
        <_>
          <internalNodes>
            0 -1 151 1.8353237464907579e-05</internalNodes>
          <leafValues>
            3.9545381441712379e-03 -1.</leafValues></_>
        <_>
          <internalNodes>
            0 -1 328 -4.9492125981487334e-05</internalNodes>
          <leafValues>
            1. -2.5146673433482647e-03</leafValues></_>
        <_>
          <internalNodes>
            0 -1 27 -6.4177452586591244e-03</internalNodes>
          <leafValues>
            -1. 2.3214069660753012e-03</leafValues></_>
        <_>
          <internalNodes>
            0 -1 34 -3.3709281124174595e-03</internalNodes>
          <leafValues>
            1. -1.9877462182193995e-03</leafValues></_>
        <_>
          <internalNodes>
            0 -1 54 -2.6539538521319628e-03</internalNodes>
          <leafValues>
            -1. 5.3219537949189544e-04</leafValues></_>
        <_>
          <internalNodes>
            0 -1 50 -4.7678439877927303e-03</internalNodes>
          <leafValues>
            1. 5.0245675675686385e-11</leafValues></_>
        <_>
          <internalNodes>
            0 -1 9 -7.6302961679175496e-04</internalNodes>
          <leafValues>
            -1. 4.8659597012124358e-16</leafValues></_>
        <_>
          <internalNodes>
            0 -1 9 -1.0103891836479306e-03</internalNodes>
          <leafValues>
            1. 1.3412520233184195e-14</leafValues></_>
        <_>
          <internalNodes>
            0 -1 9 -7.6302961679175496e-04</internalNodes>
          <leafValues>
            -1. -1.4962432131498428e-14</leafValues></_>
        <_>
          <internalNodes>
            0 -1 9 -1.0103891836479306e-03</internalNodes>
          <leafValues>
            1. 1.3978858320179682e-14</leafValues></_>
        <_>
          <internalNodes>
            0 -1 9 -7.6302961679175496e-04</internalNodes>
          <leafValues>
            -1. -1.4984724344604267e-14</leafValues></_>
        <_>
          <internalNodes>
            0 -1 9 -1.0103891836479306e-03</internalNodes>
          <leafValues>
            1. 1.4051331306179707e-14</leafValues></_>
        <_>
          <internalNodes>
            0 -1 9 -7.6302961679175496e-04</internalNodes>
          <leafValues>
            -1. -1.4940815850684498e-14</leafValues></_>
        <_>
          <internalNodes>
            0 -1 9 -1.0103891836479306e-03</internalNodes>
          <leafValues>
            1. 1.4100786171838096e-14</leafValues></_>
        <_>
          <internalNodes>
            0 -1 9 -7.6302961679175496e-04</internalNodes>
          <leafValues>
            -1. -7.8938430838064629e-15</leafValues></_>
        <_>
          <internalNodes>
            0 -1 9 -1.0103891836479306e-03</internalNodes>
          <leafValues>
            1. 1.1677954305335577e-14</leafValues></_>
        <_>
          <internalNodes>
            0 -1 9 -7.6302961679175496e-04</internalNodes>
          <leafValues>
            -1. -1.5495187056201176e-14</leafValues></_>
        <_>
          <internalNodes>
            0 -1 9 -1.0103891836479306e-03</internalNodes>
          <leafValues>
            1. 1.3775340866909944e-14</leafValues></_>
        <_>
          <internalNodes>
            0 -1 9 -7.6302961679175496e-04</internalNodes>
          <leafValues>
            -1. -1.4985623893594251e-14</leafValues></_>
        <_>
          <internalNodes>
            0 -1 9 -1.0103891836479306e-03</internalNodes>
          <leafValues>
            1. 1.4048140533067400e-14</leafValues></_>
        <_>
          <internalNodes>
            0 -1 9 -7.6302961679175496e-04</internalNodes>
          <leafValues>
            -1. -1.4943966813248284e-14</leafValues></_>
        <_>
          <internalNodes>
            0 -1 9 -1.0103891836479306e-03</internalNodes>
          <leafValues>
            1. 1.4090758148775553e-14</leafValues></_>
        <_>
          <internalNodes>
            0 -1 9 -7.6302961679175496e-04</internalNodes>
          <leafValues>
            -1. -7.8963198081442344e-15</leafValues></_>
        <_>
          <internalNodes>
            0 -1 9 -1.0103891836479306e-03</internalNodes>
          <leafValues>
            1. 1.1619610675928701e-14</leafValues></_>
        <_>
          <internalNodes>
            0 -1 9 -7.6302961679175496e-04</internalNodes>
          <leafValues>
            -1. -1.5552156798167606e-14</leafValues></_>
        <_>
          <internalNodes>
            0 -1 9 -1.0103891836479306e-03</internalNodes>
          <leafValues>
            1. 1.3717681640124449e-14</leafValues></_>
        <_>
          <internalNodes>
            0 -1 9 -7.6302961679175496e-04</internalNodes>
          <leafValues>
            -1. -1.5043042563022725e-14</leafValues></_>
        <_>
          <internalNodes>
            0 -1 9 -1.0103891836479306e-03</internalNodes>
          <leafValues>
            1. 1.4051331306179707e-14</leafValues></_>
        <_>
          <internalNodes>
            0 -1 9 -7.6302961679175496e-04</internalNodes>
          <leafValues>
            -1. -1.5048671943990177e-14</leafValues></_>
        <_>
          <internalNodes>
            0 -1 9 -1.0103891836479306e-03</internalNodes>
          <leafValues>
            1. 1.4101014023700908e-14</leafValues></_>
        <_>
          <internalNodes>
            0 -1 9 -7.6302961679175496e-04</internalNodes>
          <leafValues>
            -1. -7.8936177730424932e-15</leafValues></_>
        <_>
          <internalNodes>
            0 -1 9 -1.0103891836479306e-03</internalNodes>
          <leafValues>
            1. 1.1622801449041008e-14</leafValues></_>
        <_>
          <internalNodes>
            0 -1 9 -7.6302961679175496e-04</internalNodes>
          <leafValues>
            -1. -1.5549454763065865e-14</leafValues></_>
        <_>
          <internalNodes>
            0 -1 9 -1.0103891836479306e-03</internalNodes>
          <leafValues>
            1. 1.3745485496618071e-14</leafValues></_>
        <_>
          <internalNodes>
            0 -1 9 -7.6302961679175496e-04</internalNodes>
          <leafValues>
            -1. -1.5097310269887414e-14</leafValues></_>
        <_>
          <internalNodes>
            0 -1 9 -1.0103891836479306e-03</internalNodes>
          <leafValues>
            1. 1.3944900769324257e-14</leafValues></_>
        <_>
          <internalNodes>
            0 -1 9 -7.6302961679175496e-04</internalNodes>
          <leafValues>
            -1. -1.5045293976596527e-14</leafValues></_>
        <_>
          <internalNodes>
            0 -1 9 -1.0103891836479306e-03</internalNodes>
          <leafValues>
            1. 1.5782022905327583e-14</leafValues></_>
        <_>
          <internalNodes>
            0 -1 9 -7.6302961679175496e-04</internalNodes>
          <leafValues>
            -1. -1.5336891844952398e-14</leafValues></_>
        <_>
          <internalNodes>
            0 -1 9 -1.0103891836479306e-03</internalNodes>
          <leafValues>
            1. 1.3870148417663170e-14</leafValues></_>
        <_>
          <internalNodes>
            0 -1 9 -7.6302961679175496e-04</internalNodes>
          <leafValues>
            -1. -7.9406789235919421e-15</leafValues></_>
        <_>
          <internalNodes>
            0 -1 9 -1.0103891836479306e-03</internalNodes>
          <leafValues>
            1. 1.1517054467773992e-14</leafValues></_>
        <_>
          <internalNodes>
            0 -1 9 -7.6302961679175496e-04</internalNodes>
          <leafValues>
            -1. -1.5538646622658900e-14</leafValues></_>
        <_>
          <internalNodes>
            0 -1 9 -1.0103891836479306e-03</internalNodes>
          <leafValues>
            1. 1.3756424927131861e-14</leafValues></_>
        <_>
          <internalNodes>
            0 -1 9 -7.6302961679175496e-04</internalNodes>
          <leafValues>
            -1. -1.5059480084397142e-14</leafValues></_>
        <_>
          <internalNodes>
            0 -1 9 -1.0103891836479306e-03</internalNodes>
          <leafValues>
            1. 1.3974071736994748e-14</leafValues></_>
        <_>
          <internalNodes>
            0 -1 9 -7.6302961679175496e-04</internalNodes>
          <leafValues>
            -1. -8.0091310441913512e-15</leafValues></_>
        <_>
          <internalNodes>
            0 -1 9 -1.0103891836479306e-03</internalNodes>
          <leafValues>
            1. 1.1447772254886274e-14</leafValues></_>
        <_>
          <internalNodes>
            0 -1 9 -7.6302961679175496e-04</internalNodes>
          <leafValues>
            -1. -1.5549454763065865e-14</leafValues></_>
        <_>
          <internalNodes>
            0 -1 9 -1.0103891836479306e-03</internalNodes>
          <leafValues>
            1. 1.3687826269832577e-14</leafValues></_>
        <_>
          <internalNodes>
            0 -1 9 -7.6302961679175496e-04</internalNodes>
          <leafValues>
            -1. -1.5097310269887414e-14</leafValues></_>
        <_>
          <internalNodes>
            0 -1 9 -1.0103891836479306e-03</internalNodes>
          <leafValues>
            1. 1.3944900769324257e-14</leafValues></_>
        <_>
          <internalNodes>
            0 -1 9 -7.6302961679175496e-04</internalNodes>
          <leafValues>
            -1. -1.5045293976596527e-14</leafValues></_>
        <_>
          <internalNodes>
            0 -1 9 -1.0103891836479306e-03</internalNodes>
          <leafValues>
            1. 1.5782022905327583e-14</leafValues></_>
        <_>
          <internalNodes>
            0 -1 9 -7.6302961679175496e-04</internalNodes>
          <leafValues>
            -1. -1.5509598474765761e-14</leafValues></_>
        <_>
          <internalNodes>
            0 -1 9 -1.0103891836479306e-03</internalNodes>
          <leafValues>
            1. 1.5665337340579726e-14</leafValues></_>
        <_>
          <internalNodes>
            0 -1 9 -7.6302961679175496e-04</internalNodes>
          <leafValues>
            -1. -1.5567242454958205e-14</leafValues></_>
        <_>
          <internalNodes>
            0 -1 9 -1.0103891836479306e-03</internalNodes>
          <leafValues>
            1. 1.5606993711172849e-14</leafValues></_>
        <_>
          <internalNodes>
            0 -1 9 -7.6302961679175496e-04</internalNodes>
          <leafValues>
            -1. -1.5622409710812878e-14</leafValues></_>
        <_>
          <internalNodes>
            0 -1 9 -1.0103891836479306e-03</internalNodes>
          <leafValues>
            1. 1.5549334484387355e-14</leafValues></_>
        <_>
          <internalNodes>
            0 -1 9 -7.6302961679175496e-04</internalNodes>
          <leafValues>
            -1. -1.5564765730620433e-14</leafValues></_>
        <_>
          <internalNodes>
            0 -1 9 -1.0103891836479306e-03</internalNodes>
          <leafValues>
            1. 1.5607678113794231e-14</leafValues></_>
        <_>
          <internalNodes>
            0 -1 9 -7.6302961679175496e-04</internalNodes>
          <leafValues>
            -1. -1.5621733778520969e-14</leafValues></_>
        <_>
          <internalNodes>
            0 -1 9 -1.0103891836479306e-03</internalNodes>
          <leafValues>
            1. 1.5551841701911227e-14</leafValues></_>
        <_>
          <internalNodes>
            0 -1 9 -7.6302961679175496e-04</internalNodes>
          <leafValues>
            -1. -1.5564089798328525e-14</leafValues></_>
        <_>
          <internalNodes>
            0 -1 9 -1.0103891836479306e-03</internalNodes>
          <leafValues>
            1. 1.5552068706741091e-14</leafValues></_>
        <_>
          <internalNodes>
            0 -1 9 -7.6302961679175496e-04</internalNodes>
          <leafValues>
            -1. -1.5563864487564555e-14</leafValues></_>
        <_>
          <internalNodes>
            0 -1 9 -1.0103891836479306e-03</internalNodes>
          <leafValues>
            1. 1.5559590359312710e-14</leafValues></_>
        <_>
          <internalNodes>
            0 -1 9 -7.6302961679175496e-04</internalNodes>
          <leafValues>
            -1. -8.5310786755200818e-15</leafValues></_>
        <_>
          <internalNodes>
            0 -1 9 -1.0103891836479306e-03</internalNodes>
          <leafValues>
            1. 1.1272743060731540e-14</leafValues></_>
        <_>
          <internalNodes>
            0 -1 9 -7.6302961679175496e-04</internalNodes>
          <leafValues>
            -1. -1.5607098743258309e-14</leafValues></_>
        <_>
          <internalNodes>
            0 -1 9 -1.0103891836479306e-03</internalNodes>
          <leafValues>
            1. 1.3687142714244142e-14</leafValues></_></weakClassifiers></_>
    <!-- stage 13 -->
    <_>
      <maxWeakCount>100</maxWeakCount>
      <stageThreshold>-2.6446614265441895e+00</stageThreshold>
      <weakClassifiers>
        <_>
          <internalNodes>
            0 -1 190 -3.0366916325874627e-04</internalNodes>
          <leafValues>
            9.1735535860061646e-01 -9.4335937500000000e-01</leafValues></_>
        <_>
          <internalNodes>
            0 -1 109 -2.6469738804735243e-04</internalNodes>
          <leafValues>
            9.4286805391311646e-01 -8.3499699831008911e-01</leafValues></_>
        <_>
          <internalNodes>
            0 -1 101 1.8447026377543807e-05</internalNodes>
          <leafValues>
            -6.2359988689422607e-01 9.6566182374954224e-01</leafValues></_>
        <_>
          <internalNodes>
            0 -1 95 -3.2512815669178963e-03</internalNodes>
          <leafValues>
            9.7577190399169922e-01 -1.6900320351123810e-01</leafValues></_>
        <_>
          <internalNodes>
            0 -1 141 -7.7726354356855154e-04</internalNodes>
          <leafValues>
            1. -6.2169823795557022e-02</leafValues></_>
        <_>
          <internalNodes>
            0 -1 305 5.5663892999291420e-04</internalNodes>
          <leafValues>
            -3.2588332891464233e-02 1.</leafValues></_>
        <_>
          <internalNodes>
            0 -1 93 1.7713397392071784e-04</internalNodes>
          <leafValues>
            -1.9894847646355629e-02 1.</leafValues></_>
        <_>
          <internalNodes>
            0 -1 325 1.4045187272131443e-02</internalNodes>
          <leafValues>
            5.3666811436414719e-02 -9.4740551710128784e-01</leafValues></_>
        <_>
          <internalNodes>
            0 -1 333 -2.9806391103193164e-04</internalNodes>
          <leafValues>
            1. -2.6162227615714073e-02</leafValues></_>
        <_>
          <internalNodes>
            0 -1 3 7.8736084105912596e-05</internalNodes>
          <leafValues>
            2.0311128348112106e-02 -9.1352188587188721e-01</leafValues></_>
        <_>
          <internalNodes>
            0 -1 335 1.9799856090685353e-05</internalNodes>
          <leafValues>
            -1.1539512313902378e-02 1.</leafValues></_>
        <_>
          <internalNodes>
            0 -1 43 -3.2754414714872837e-03</internalNodes>
          <leafValues>
            -1. 7.2381305508315563e-03</leafValues></_>
        <_>
          <internalNodes>
            0 -1 72 -4.1629606857895851e-03</internalNodes>
          <leafValues>
            9.4890892505645752e-01 -3.1659507658332586e-03</leafValues></_>
        <_>
          <internalNodes>
            0 -1 103 4.1631627827882767e-03</internalNodes>
          <leafValues>
            2.0440847147256136e-03 -1.</leafValues></_>
        <_>
          <internalNodes>
            0 -1 121 1.8023133743554354e-03</internalNodes>
          <leafValues>
            -2.2359709255397320e-03 1.</leafValues></_>
        <_>
          <internalNodes>
            0 -1 1 1.3122679774824064e-05</internalNodes>
          <leafValues>
            7.9448212636634707e-04 -1.</leafValues></_>
        <_>
          <internalNodes>
            0 -1 1 1.7402933735866100e-05</internalNodes>
          <leafValues>
            1.6715188955185312e-10 1.</leafValues></_>
        <_>
          <internalNodes>
            0 -1 1 1.3122679774824064e-05</internalNodes>
          <leafValues>
            -9.1655423519138111e-16 -1.</leafValues></_>
        <_>
          <internalNodes>
            0 -1 1 1.7402933735866100e-05</internalNodes>
          <leafValues>
            -8.5856140447961027e-15 1.</leafValues></_>
        <_>
          <internalNodes>
            0 -1 1 1.3122679774824064e-05</internalNodes>
          <leafValues>
            -1.6988915470882268e-15 -1.</leafValues></_>
        <_>
          <internalNodes>
            0 -1 1 1.7402933735866100e-05</internalNodes>
          <leafValues>
            1.1475455197426676e-15 1.</leafValues></_>
        <_>
          <internalNodes>
            0 -1 1 1.3122679774824064e-05</internalNodes>
          <leafValues>
            -3.9241719310058754e-15 -1.</leafValues></_>
        <_>
          <internalNodes>
            0 -1 1 1.7402933735866100e-05</internalNodes>
          <leafValues>
            9.9030232341437924e-16 1.</leafValues></_>
        <_>
          <internalNodes>
            0 -1 1 1.3122679774824064e-05</internalNodes>
          <leafValues>
            -2.3267232731423101e-15 -1.</leafValues></_>
        <_>
          <internalNodes>
            0 -1 1 1.7402933735866100e-05</internalNodes>
          <leafValues>
            2.3068019052558363e-15 1.</leafValues></_>
        <_>
          <internalNodes>
            0 -1 1 1.3122679774824064e-05</internalNodes>
          <leafValues>
            -2.8573483334991875e-15 -1.</leafValues></_>
        <_>
          <internalNodes>
            0 -1 1 1.7402933735866100e-05</internalNodes>
          <leafValues>
            2.3211275617345114e-15 1.</leafValues></_>
        <_>
          <internalNodes>
            0 -1 1 1.3122679774824064e-05</internalNodes>
          <leafValues>
            -2.3962843716279119e-15 -1.</leafValues></_>
        <_>
          <internalNodes>
            0 -1 1 1.7402933735866100e-05</internalNodes>
          <leafValues>
            2.2358548491102897e-15 1.</leafValues></_>
        <_>
          <internalNodes>
            0 -1 1 1.3122679774824064e-05</internalNodes>
          <leafValues>
            -2.5004027202955945e-15 -1.</leafValues></_>
        <_>
          <internalNodes>
            0 -1 1 1.7402933735866100e-05</internalNodes>
          <leafValues>
            2.1301163381727464e-15 1.</leafValues></_>
        <_>
          <internalNodes>
            0 -1 1 1.3122679774824064e-05</internalNodes>
          <leafValues>
            -2.4970584224615977e-15 -1.</leafValues></_>
        <_>
          <internalNodes>
            0 -1 1 1.7402933735866100e-05</internalNodes>
          <leafValues>
            2.1335273398513394e-15 1.</leafValues></_>
        <_>
          <internalNodes>
            0 -1 1 1.3122679774824064e-05</internalNodes>
          <leafValues>
            -2.4676288979839575e-15 -1.</leafValues></_>
        <_>
          <internalNodes>
            0 -1 1 1.7402933735866100e-05</internalNodes>
          <leafValues>
            2.2542737923065713e-15 1.</leafValues></_>
        <_>
          <internalNodes>
            0 -1 1 1.3122679774824064e-05</internalNodes>
          <leafValues>
            -2.5146716255668037e-15 -1.</leafValues></_>
        <_>
          <internalNodes>
            0 -1 1 1.7402933735866100e-05</internalNodes>
          <leafValues>
            2.2074305409828035e-15 1.</leafValues></_>
        <_>
          <internalNodes>
            0 -1 1 1.3122679774824064e-05</internalNodes>
          <leafValues>
            -2.4540287252246057e-15 -1.</leafValues></_>
        <_>
          <internalNodes>
            0 -1 1 1.7402933735866100e-05</internalNodes>
          <leafValues>
            2.2690543054779220e-15 1.</leafValues></_>
        <_>
          <internalNodes>
            0 -1 1 1.3122679774824064e-05</internalNodes>
          <leafValues>
            -2.3938317877291370e-15 -1.</leafValues></_>
        <_>
          <internalNodes>
            0 -1 1 1.7402933735866100e-05</internalNodes>
          <leafValues>
            2.2414259965626180e-15 1.</leafValues></_>
        <_>
          <internalNodes>
            0 -1 1 1.3122679774824064e-05</internalNodes>
          <leafValues>
            -2.4408745153119832e-15 -1.</leafValues></_>
        <_>
          <internalNodes>
            0 -1 1 1.7402933735866100e-05</internalNodes>
          <leafValues>
            2.3098715526566858e-15 1.</leafValues></_>
        <_>
          <internalNodes>
            0 -1 1 1.3122679774824064e-05</internalNodes>
          <leafValues>
            -2.4114449908343430e-15 -1.</leafValues></_>
        <_>
          <internalNodes>
            0 -1 1 1.7402933735866100e-05</internalNodes>
          <leafValues>
            2.3128276976426033e-15 1.</leafValues></_>
        <_>
          <internalNodes>
            0 -1 1 1.3122679774824064e-05</internalNodes>
          <leafValues>
            -2.4105532768991210e-15 -1.</leafValues></_>
        <_>
          <internalNodes>
            0 -1 1 1.7402933735866100e-05</internalNodes>
          <leafValues>
            2.7869448607475414e-15 1.</leafValues></_>
        <_>
          <internalNodes>
            0 -1 1 1.3122679774824064e-05</internalNodes>
          <leafValues>
            -2.5826718540888525e-15 -1.</leafValues></_>
        <_>
          <internalNodes>
            0 -1 1 1.7402933735866100e-05</internalNodes>
          <leafValues>
            2.3136236968547856e-15 1.</leafValues></_>
        <_>
          <internalNodes>
            0 -1 1 1.3122679774824064e-05</internalNodes>
          <leafValues>
            -2.4081006930003462e-15 -1.</leafValues></_>
        <_>
          <internalNodes>
            0 -1 1 1.7402933735866100e-05</internalNodes>
          <leafValues>
            2.7872860032670480e-15 1.</leafValues></_>
        <_>
          <internalNodes>
            0 -1 1 1.3122679774824064e-05</internalNodes>
          <leafValues>
            -2.5824488726654878e-15 -1.</leafValues></_>
        <_>
          <internalNodes>
            0 -1 1 1.7402933735866100e-05</internalNodes>
          <leafValues>
            2.7869448607475414e-15 1.</leafValues></_>
        <_>
          <internalNodes>
            0 -1 1 1.3122679774824064e-05</internalNodes>
          <leafValues>
            -2.5826718540888525e-15 -1.</leafValues></_>
        <_>
          <internalNodes>
            0 -1 1 1.7402933735866100e-05</internalNodes>
          <leafValues>
            2.3136236968547856e-15 1.</leafValues></_>
        <_>
          <internalNodes>
            0 -1 1 1.3122679774824064e-05</internalNodes>
          <leafValues>
            -2.4081006930003462e-15 -1.</leafValues></_>
        <_>
          <internalNodes>
            0 -1 1 1.7402933735866100e-05</internalNodes>
          <leafValues>
            2.7872860032670480e-15 1.</leafValues></_>
        <_>
          <internalNodes>
            0 -1 1 1.3122679774824064e-05</internalNodes>
          <leafValues>
            -2.5824488726654878e-15 -1.</leafValues></_>
        <_>
          <internalNodes>
            0 -1 1 1.7402933735866100e-05</internalNodes>
          <leafValues>
            2.7869448607475414e-15 1.</leafValues></_>
        <_>
          <internalNodes>
            0 -1 1 1.3122679774824064e-05</internalNodes>
          <leafValues>
            -2.5826718540888525e-15 -1.</leafValues></_>
        <_>
          <internalNodes>
            0 -1 1 1.7402933735866100e-05</internalNodes>
          <leafValues>
            2.3136236968547856e-15 1.</leafValues></_>
        <_>
          <internalNodes>
            0 -1 1 1.3122679774824064e-05</internalNodes>
          <leafValues>
            -2.4081006930003462e-15 -1.</leafValues></_>
        <_>
          <internalNodes>
            0 -1 1 1.7402933735866100e-05</internalNodes>
          <leafValues>
            2.7872860032670480e-15 1.</leafValues></_>
        <_>
          <internalNodes>
            0 -1 1 1.3122679774824064e-05</internalNodes>
          <leafValues>
            -2.5824488726654878e-15 -1.</leafValues></_>
        <_>
          <internalNodes>
            0 -1 1 1.7402933735866100e-05</internalNodes>
          <leafValues>
            2.7869448607475414e-15 1.</leafValues></_>
        <_>
          <internalNodes>
            0 -1 1 1.3122679774824064e-05</internalNodes>
          <leafValues>
            -2.5826718540888525e-15 -1.</leafValues></_>
        <_>
          <internalNodes>
            0 -1 1 1.7402933735866100e-05</internalNodes>
          <leafValues>
            2.3136236968547856e-15 1.</leafValues></_>
        <_>
          <internalNodes>
            0 -1 1 1.3122679774824064e-05</internalNodes>
          <leafValues>
            -2.4081006930003462e-15 -1.</leafValues></_>
        <_>
          <internalNodes>
            0 -1 1 1.7402933735866100e-05</internalNodes>
          <leafValues>
            2.7872860032670480e-15 1.</leafValues></_>
        <_>
          <internalNodes>
            0 -1 1 1.3122679774824064e-05</internalNodes>
          <leafValues>
            -2.5824488726654878e-15 -1.</leafValues></_>
        <_>
          <internalNodes>
            0 -1 1 1.7402933735866100e-05</internalNodes>
          <leafValues>
            2.7869448607475414e-15 1.</leafValues></_>
        <_>
          <internalNodes>
            0 -1 1 1.3122679774824064e-05</internalNodes>
          <leafValues>
            -2.5826718540888525e-15 -1.</leafValues></_>
        <_>
          <internalNodes>
            0 -1 1 1.7402933735866100e-05</internalNodes>
          <leafValues>
            2.3136236968547856e-15 1.</leafValues></_>
        <_>
          <internalNodes>
            0 -1 1 1.3122679774824064e-05</internalNodes>
          <leafValues>
            -2.4081006930003462e-15 -1.</leafValues></_>
        <_>
          <internalNodes>
            0 -1 1 1.7402933735866100e-05</internalNodes>
          <leafValues>
            2.7872860032670480e-15 1.</leafValues></_>
        <_>
          <internalNodes>
            0 -1 1 1.3122679774824064e-05</internalNodes>
          <leafValues>
            -2.5824488726654878e-15 -1.</leafValues></_>
        <_>
          <internalNodes>
            0 -1 1 1.7402933735866100e-05</internalNodes>
          <leafValues>
            2.7869448607475414e-15 1.</leafValues></_>
        <_>
          <internalNodes>
            0 -1 1 1.3122679774824064e-05</internalNodes>
          <leafValues>
            -2.5826718540888525e-15 -1.</leafValues></_>
        <_>
          <internalNodes>
            0 -1 1 1.7402933735866100e-05</internalNodes>
          <leafValues>
            2.3136236968547856e-15 1.</leafValues></_>
        <_>
          <internalNodes>
            0 -1 1 1.3122679774824064e-05</internalNodes>
          <leafValues>
            -2.4081006930003462e-15 -1.</leafValues></_>
        <_>
          <internalNodes>
            0 -1 1 1.7402933735866100e-05</internalNodes>
          <leafValues>
            2.7872860032670480e-15 1.</leafValues></_>
        <_>
          <internalNodes>
            0 -1 1 1.3122679774824064e-05</internalNodes>
          <leafValues>
            -2.5824488726654878e-15 -1.</leafValues></_>
        <_>
          <internalNodes>
            0 -1 1 1.7402933735866100e-05</internalNodes>
          <leafValues>
            2.7869448607475414e-15 1.</leafValues></_>
        <_>
          <internalNodes>
            0 -1 1 1.3122679774824064e-05</internalNodes>
          <leafValues>
            -2.5826718540888525e-15 -1.</leafValues></_>
        <_>
          <internalNodes>
            0 -1 1 1.7402933735866100e-05</internalNodes>
          <leafValues>
            2.3136236968547856e-15 1.</leafValues></_>
        <_>
          <internalNodes>
            0 -1 1 1.3122679774824064e-05</internalNodes>
          <leafValues>
            -2.4081006930003462e-15 -1.</leafValues></_>
        <_>
          <internalNodes>
            0 -1 1 1.7402933735866100e-05</internalNodes>
          <leafValues>
            2.7872860032670480e-15 1.</leafValues></_>
        <_>
          <internalNodes>
            0 -1 1 1.3122679774824064e-05</internalNodes>
          <leafValues>
            -2.5824488726654878e-15 -1.</leafValues></_>
        <_>
          <internalNodes>
            0 -1 1 1.7402933735866100e-05</internalNodes>
          <leafValues>
            2.7869448607475414e-15 1.</leafValues></_>
        <_>
          <internalNodes>
            0 -1 1 1.3122679774824064e-05</internalNodes>
          <leafValues>
            -2.5826718540888525e-15 -1.</leafValues></_>
        <_>
          <internalNodes>
            0 -1 1 1.7402933735866100e-05</internalNodes>
          <leafValues>
            2.3136236968547856e-15 1.</leafValues></_>
        <_>
          <internalNodes>
            0 -1 1 1.3122679774824064e-05</internalNodes>
          <leafValues>
            -2.4081006930003462e-15 -1.</leafValues></_>
        <_>
          <internalNodes>
            0 -1 1 1.7402933735866100e-05</internalNodes>
          <leafValues>
            2.7872860032670480e-15 1.</leafValues></_>
        <_>
          <internalNodes>
            0 -1 1 1.3122679774824064e-05</internalNodes>
          <leafValues>
            -2.5824488726654878e-15 -1.</leafValues></_>
        <_>
          <internalNodes>
            0 -1 1 1.7402933735866100e-05</internalNodes>
          <leafValues>
            2.7869448607475414e-15 1.</leafValues></_>
        <_>
          <internalNodes>
            0 -1 1 1.3122679774824064e-05</internalNodes>
          <leafValues>
            -2.5826718540888525e-15 -1.</leafValues></_>
        <_>
          <internalNodes>
            0 -1 1 1.7402933735866100e-05</internalNodes>
          <leafValues>
            2.3136236968547856e-15 1.</leafValues></_>
        <_>
          <internalNodes>
            0 -1 1 1.3122679774824064e-05</internalNodes>
          <leafValues>
            -2.4081006930003462e-15 -1.</leafValues></_>
        <_>
          <internalNodes>
            0 -1 1 1.7402933735866100e-05</internalNodes>
          <leafValues>
            2.7872860032670480e-15 1.</leafValues></_>
        <_>
          <internalNodes>
            0 -1 1 1.3122679774824064e-05</internalNodes>
          <leafValues>
            -2.5824488726654878e-15 -1.</leafValues></_></weakClassifiers></_>
    <!-- stage 14 -->
    <_>
      <maxWeakCount>100</maxWeakCount>
      <stageThreshold>-2.6349589824676514e+00</stageThreshold>
      <weakClassifiers>
        <_>
          <internalNodes>
            0 -1 190 -3.0366916325874627e-04</internalNodes>
          <leafValues>
            7.1851849555969238e-01 -9.4257426261901855e-01</leafValues></_>
        <_>
          <internalNodes>
            0 -1 235 -1.6398913430748507e-05</internalNodes>
          <leafValues>
            8.5523676872253418e-01 -7.9593801498413086e-01</leafValues></_>
        <_>
          <internalNodes>
            0 -1 312 -1.0995040065608919e-04</internalNodes>
          <leafValues>
            8.7241470813751221e-01 -5.7252156734466553e-01</leafValues></_>
        <_>
          <internalNodes>
            0 -1 234 4.2687428503995761e-05</internalNodes>
          <leafValues>
            -2.4108235538005829e-01 9.3848943710327148e-01</leafValues></_>
        <_>
          <internalNodes>
            0 -1 311 -1.6286352547467686e-05</internalNodes>
          <leafValues>
            1. -8.3663932979106903e-02</leafValues></_>
        <_>
          <internalNodes>
            0 -1 349 -2.8792883313144557e-05</internalNodes>
          <leafValues>
            9.3497323989868164e-01 -6.4838640391826630e-02</leafValues></_>
        <_>
          <internalNodes>
            0 -1 318 -2.3955753931659274e-05</internalNodes>
          <leafValues>
            9.0791553258895874e-01 -3.1779974699020386e-02</leafValues></_>
        <_>
          <internalNodes>
            0 -1 271 -8.1324588973075151e-04</internalNodes>
          <leafValues>
            -7.1538835763931274e-01 1.2518264353275299e-01</leafValues></_>
        <_>
          <internalNodes>
            0 -1 80 -1.7297128579230048e-05</internalNodes>
          <leafValues>
            1. -7.2424814105033875e-02</leafValues></_>
        <_>
          <internalNodes>
            0 -1 246 2.8477818705141544e-03</internalNodes>
          <leafValues>
            5.8472912758588791e-02 -9.7733050584793091e-01</leafValues></_>
        <_>
          <internalNodes>
            0 -1 180 1.6535297618247569e-05</internalNodes>
          <leafValues>
            -5.2782941609621048e-02 8.5650324821472168e-01</leafValues></_>
        <_>
          <internalNodes>
            0 -1 195 -4.1051958687603474e-03</internalNodes>
          <leafValues>
            -8.2841646671295166e-01 4.6833477914333344e-02</leafValues></_>
        <_>
          <internalNodes>
            0 -1 174 3.1073337595444173e-05</internalNodes>
          <leafValues>
            -3.3991638571023941e-02 8.2939082384109497e-01</leafValues></_>
        <_>
          <internalNodes>
            0 -1 304 7.7793584205210209e-04</internalNodes>
          <leafValues>
            3.2162588089704514e-02 -8.9937376976013184e-01</leafValues></_>
        <_>
          <internalNodes>
            0 -1 225 -1.7274428391829133e-03</internalNodes>
          <leafValues>
            1. -2.1600631996989250e-02</leafValues></_>
        <_>
          <internalNodes>
            0 -1 285 -7.4059644248336554e-04</internalNodes>
          <leafValues>
            -9.0783607959747314e-01 2.1548228338360786e-02</leafValues></_>
        <_>
          <internalNodes>
            0 -1 309 -4.6773224312346429e-05</internalNodes>
          <leafValues>
            1. -1.1174110695719719e-02</leafValues></_>
        <_>
          <internalNodes>
            0 -1 130 -9.8386174067854881e-04</internalNodes>
          <leafValues>
            -1. 8.8133644312620163e-03</leafValues></_>
        <_>
          <internalNodes>
            0 -1 193 -6.1367853777483106e-04</internalNodes>
          <leafValues>
            9.6056717634201050e-01 -5.1658009178936481e-03</leafValues></_>
        <_>
          <internalNodes>
            0 -1 47 6.3069248571991920e-03</internalNodes>
          <leafValues>
            4.0225340053439140e-03 -8.9645516872406006e-01</leafValues></_>
        <_>
          <internalNodes>
            0 -1 251 9.5434588729403913e-05</internalNodes>
          <leafValues>
            -3.0999819282442331e-03 1.</leafValues></_>
        <_>
          <internalNodes>
            0 -1 45 6.6473679617047310e-03</internalNodes>
          <leafValues>
            1.1806198162958026e-03 -1.</leafValues></_>
        <_>
          <internalNodes>
            0 -1 42 -3.5287195350974798e-04</internalNodes>
          <leafValues>
            1. -5.3665839368477464e-04</leafValues></_>
        <_>
          <internalNodes>
            0 -1 18 -1.4734583673998713e-03</internalNodes>
          <leafValues>
            -1. -5.1536871992219346e-11</leafValues></_>
        <_>
          <internalNodes>
            0 -1 17 -9.7649814561009407e-03</internalNodes>
          <leafValues>
            1. -1.0028197763089033e-15</leafValues></_>
        <_>
          <internalNodes>
            0 -1 16 6.5472628921270370e-04</internalNodes>
          <leafValues>
            -7.4488813241416099e-16 -1.</leafValues></_>
        <_>
          <internalNodes>
            0 -1 16 1.0997726349160075e-03</internalNodes>
          <leafValues>
            4.0636985862093928e-15 1.</leafValues></_>
        <_>
          <internalNodes>
            0 -1 16 6.5472628921270370e-04</internalNodes>
          <leafValues>
            -2.6888919032569099e-15 -1.</leafValues></_>
        <_>
          <internalNodes>
            0 -1 16 1.0997726349160075e-03</internalNodes>
          <leafValues>
            4.8149837761390143e-15 1.</leafValues></_>
        <_>
          <internalNodes>
            0 -1 16 6.5472628921270370e-04</internalNodes>
          <leafValues>
            -1.9341584421990162e-15 -1.</leafValues></_>
        <_>
          <internalNodes>
            0 -1 16 1.0997726349160075e-03</internalNodes>
          <leafValues>
            5.1657956002550652e-15 1.</leafValues></_>
        <_>
          <internalNodes>
            0 -1 16 6.5472628921270370e-04</internalNodes>
          <leafValues>
            -2.9858178206092472e-15 -1.</leafValues></_>
        <_>
          <internalNodes>
            0 -1 16 1.0997726349160075e-03</internalNodes>
          <leafValues>
            -5.6599249755300701e-15 1.</leafValues></_>
        <_>
          <internalNodes>
            0 -1 16 6.5472628921270370e-04</internalNodes>
          <leafValues>
            5.9049557253029782e-16 -1.</leafValues></_>
        <_>
          <internalNodes>
            0 -1 16 1.0997726349160075e-03</internalNodes>
          <leafValues>
            1.6254794133079334e-15 1.</leafValues></_>
        <_>
          <internalNodes>
            0 -1 16 6.5472628921270370e-04</internalNodes>
          <leafValues>
            -2.3053716901243974e-15 -1.</leafValues></_>
        <_>
          <internalNodes>
            0 -1 16 1.0997726349160075e-03</internalNodes>
          <leafValues>
            5.4578737362920293e-15 1.</leafValues></_>
        <_>
          <internalNodes>
            0 -1 16 6.5472628921270370e-04</internalNodes>
          <leafValues>
            -2.1051089609544840e-15 -1.</leafValues></_>
        <_>
          <internalNodes>
            0 -1 16 1.0997726349160075e-03</internalNodes>
          <leafValues>
            5.1667023490251009e-15 1.</leafValues></_>
        <_>
          <internalNodes>
            0 -1 16 6.5472628921270370e-04</internalNodes>
          <leafValues>
            -2.9831327261664511e-15 -1.</leafValues></_>
        <_>
          <internalNodes>
            0 -1 16 1.0997726349160075e-03</internalNodes>
          <leafValues>
            -5.6567502960437610e-15 1.</leafValues></_>
        <_>
          <internalNodes>
            0 -1 16 6.5472628921270370e-04</internalNodes>
          <leafValues>
            4.8600092947579743e-16 -1.</leafValues></_>
        <_>
          <internalNodes>
            0 -1 16 1.0997726349160075e-03</internalNodes>
          <leafValues>
            3.3561795886644010e-15 1.</leafValues></_>
        <_>
          <internalNodes>
            0 -1 16 6.5472628921270370e-04</internalNodes>
          <leafValues>
            -2.8065881900690790e-15 -1.</leafValues></_>
        <_>
          <internalNodes>
            0 -1 16 1.0997726349160075e-03</internalNodes>
          <leafValues>
            4.7567045212361294e-15 1.</leafValues></_>
        <_>
          <internalNodes>
            0 -1 16 6.5472628921270370e-04</internalNodes>
          <leafValues>
            -2.1053327894107960e-15 -1.</leafValues></_>
        <_>
          <internalNodes>
            0 -1 16 1.0997726349160075e-03</internalNodes>
          <leafValues>
            5.1664757677117104e-15 1.</leafValues></_>
        <_>
          <internalNodes>
            0 -1 16 6.5472628921270370e-04</internalNodes>
          <leafValues>
            -2.9855939921529353e-15 -1.</leafValues></_>
        <_>
          <internalNodes>
            0 -1 16 1.0997726349160075e-03</internalNodes>
          <leafValues>
            -5.6592443845569513e-15 1.</leafValues></_>
        <_>
          <internalNodes>
            0 -1 16 6.5472628921270370e-04</internalNodes>
          <leafValues>
            4.8353961054975404e-16 -1.</leafValues></_>
        <_>
          <internalNodes>
            0 -1 16 1.0997726349160075e-03</internalNodes>
          <leafValues>
            3.3559527955927737e-15 1.</leafValues></_>
        <_>
          <internalNodes>
            0 -1 16 6.5472628921270370e-04</internalNodes>
          <leafValues>
            -2.8139721997867684e-15 -1.</leafValues></_>
        <_>
          <internalNodes>
            0 -1 16 1.0997726349160075e-03</internalNodes>
          <leafValues>
            4.7492209851471377e-15 1.</leafValues></_>
        <_>
          <internalNodes>
            0 -1 16 6.5472628921270370e-04</internalNodes>
          <leafValues>
            -2.1060040630214950e-15 -1.</leafValues></_>
        <_>
          <internalNodes>
            0 -1 16 1.0997726349160075e-03</internalNodes>
          <leafValues>
            5.1657956002550652e-15 1.</leafValues></_>
        <_>
          <internalNodes>
            0 -1 16 6.5472628921270370e-04</internalNodes>
          <leafValues>
            -2.9858178206092472e-15 -1.</leafValues></_>
        <_>
          <internalNodes>
            0 -1 16 1.0997726349160075e-03</internalNodes>
          <leafValues>
            -5.6599249755300701e-15 1.</leafValues></_>
        <_>
          <internalNodes>
            0 -1 16 6.5472628921270370e-04</internalNodes>
          <leafValues>
            4.7615560083206468e-16 -1.</leafValues></_>
        <_>
          <internalNodes>
            0 -1 16 1.0997726349160075e-03</internalNodes>
          <leafValues>
            3.3534584953213466e-15 1.</leafValues></_>
        <_>
          <internalNodes>
            0 -1 16 6.5472628921270370e-04</internalNodes>
          <leafValues>
            -2.8141960282430803e-15 -1.</leafValues></_>
        <_>
          <internalNodes>
            0 -1 16 1.0997726349160075e-03</internalNodes>
          <leafValues>
            4.7467264731174737e-15 1.</leafValues></_>
        <_>
          <internalNodes>
            0 -1 16 6.5472628921270370e-04</internalNodes>
          <leafValues>
            -2.1084653290079792e-15 -1.</leafValues></_>
        <_>
          <internalNodes>
